<?xml version="1.0"?>
<opencv_storage>
<cascade>
  <stageType>BOOST</stageType>
  <featureType>HAAR</featureType>
  <height>50</height>
  <width>100</width>
  <stageParams>
    <boostType>GAB</boostType>
    <minHitRate>9.9500000476837158e-01</minHitRate>
    <maxFalseAlarm>5.0000000000000000e-01</maxFalseAlarm>
    <weightTrimRate>9.4999998807907104e-01</weightTrimRate>
    <maxDepth>1</maxDepth>
    <maxWeakCount>100</maxWeakCount></stageParams>
  <featureParams>
    <maxCatCount>0</maxCatCount>
    <featSize>1</featSize>
    <mode>BASIC</mode></featureParams>
  <stageNum>10</stageNum>
  <stages>
    <!-- stage 0 -->
    <_>
      <maxWeakCount>3</maxWeakCount>
      <stageThreshold>5.1217049360275269e-01</stageThreshold>
      <weakClassifiers>
        <_>
          <internalNodes>
            0 -1 13 -5.3943530656397343e-04</internalNodes>
          <leafValues>
            -8.2608693838119507e-01 5.5102038383483887e-01</leafValues></_>
        <_>
          <internalNodes>
            0 -1 2 -2.7414341457188129e-04</internalNodes>
          <leafValues>
            -6.5376037359237671e-01 7.1740710735321045e-01</leafValues></_>
        <_>
          <internalNodes>
            0 -1 11 -2.7399609098210931e-04</internalNodes>
          <leafValues>
            6.4948326349258423e-01 -7.5625699758529663e-01</leafValues></_></weakClassifiers></_>
    <!-- stage 1 -->
    <_>
      <maxWeakCount>2</maxWeakCount>
      <stageThreshold>2.4296927452087402e-01</stageThreshold>
      <weakClassifiers>
        <_>
          <internalNodes>
            0 -1 22 -1.5913937240839005e-03</internalNodes>
          <leafValues>
            9.2592591047286987e-01 -3.7777778506278992e-01</leafValues></_>
        <_>
          <internalNodes>
            0 -1 7 2.2371222439687699e-04</internalNodes>
          <leafValues>
            -6.8295663595199585e-01 8.1417572498321533e-01</leafValues></_></weakClassifiers></_>
    <!-- stage 2 -->
    <_>
      <maxWeakCount>3</maxWeakCount>
      <stageThreshold>5.7738035917282104e-01</stageThreshold>
      <weakClassifiers>
        <_>
          <internalNodes>
            0 -1 16 2.6450533187016845e-04</internalNodes>
          <leafValues>
            5.2941179275512695e-01 -9.0476191043853760e-01</leafValues></_>
        <_>
          <internalNodes>
            0 -1 12 -1.3547390699386597e-04</internalNodes>
          <leafValues>
            -6.6174572706222534e-01 7.8484046459197998e-01</leafValues></_>
        <_>
          <internalNodes>
            0 -1 21 -1.4851204468868673e-04</internalNodes>
          <leafValues>
            -7.3687183856964111e-01 7.1813416481018066e-01</leafValues></_></weakClassifiers></_>
    <!-- stage 3 -->
    <_>
      <maxWeakCount>2</maxWeakCount>
      <stageThreshold>3.8936907052993774e-01</stageThreshold>
      <weakClassifiers>
        <_>
          <internalNodes>
            0 -1 8 -1.1982494470430538e-05</internalNodes>
          <leafValues>
            1. -5.6097561120986938e-01</leafValues></_>
        <_>
          <internalNodes>
            0 -1 20 1.7985890735872090e-04</internalNodes>
          <leafValues>
            -6.1063092947006226e-01 1.</leafValues></_></weakClassifiers></_>
    <!-- stage 4 -->
    <_>
      <maxWeakCount>2</maxWeakCount>
      <stageThreshold>2.6505351066589355e-01</stageThreshold>
      <weakClassifiers>
        <_>
          <internalNodes>
            0 -1 3 -7.4085310188820586e-06</internalNodes>
          <leafValues>
            1. -6.4102566242218018e-01</leafValues></_>
        <_>
          <internalNodes>
            0 -1 18 2.1419664335553534e-05</internalNodes>
          <leafValues>
            -7.3494648933410645e-01 1.</leafValues></_></weakClassifiers></_>
    <!-- stage 5 -->
    <_>
      <maxWeakCount>2</maxWeakCount>
      <stageThreshold>3.3311054110527039e-01</stageThreshold>
      <weakClassifiers>
        <_>
          <internalNodes>
            0 -1 1 -8.9081731857731938e-05</internalNodes>
          <leafValues>
            1. -4.8837208747863770e-01</leafValues></_>
        <_>
          <internalNodes>
            0 -1 23 2.9021757654845715e-05</internalNodes>
          <leafValues>
            -6.6688948869705200e-01 9.0611344575881958e-01</leafValues></_></weakClassifiers></_>
    <!-- stage 6 -->
    <_>
      <maxWeakCount>3</maxWeakCount>
      <stageThreshold>-3.6188006401062012e-01</stageThreshold>
      <weakClassifiers>
        <_>
          <internalNodes>
            0 -1 9 -2.4569986635469832e-05</internalNodes>
          <leafValues>
            9.3333333730697632e-01 -4.7619047760963440e-01</leafValues></_>
        <_>
          <internalNodes>
            0 -1 15 -2.8421278329915367e-05</internalNodes>
          <leafValues>
            9.4692319631576538e-01 -5.3982514142990112e-01</leafValues></_>
        <_>
          <internalNodes>
            0 -1 4 -6.1604275833815336e-04</internalNodes>
          <leafValues>
            7.5445127487182617e-01 -7.5538825988769531e-01</leafValues></_></weakClassifiers></_>
    <!-- stage 7 -->
    <_>
      <maxWeakCount>3</maxWeakCount>
      <stageThreshold>-5.7550072669982910e-02</stageThreshold>
      <weakClassifiers>
        <_>
          <internalNodes>
            0 -1 0 1.4556066889781505e-04</internalNodes>
          <leafValues>
            -4.5454546809196472e-01 1.</leafValues></_>
        <_>
          <internalNodes>
            0 -1 5 -1.4057715816306882e-05</internalNodes>
          <leafValues>
            9.4758296012878418e-01 -5.5554449558258057e-01</leafValues></_>
        <_>
          <internalNodes>
            0 -1 14 1.1137222172692418e-03</internalNodes>
          <leafValues>
            -5.0200557708740234e-01 1.</leafValues></_></weakClassifiers></_>
    <!-- stage 8 -->
    <_>
      <maxWeakCount>2</maxWeakCount>
      <stageThreshold>2.6240706443786621e-01</stageThreshold>
      <weakClassifiers>
        <_>
          <internalNodes>
            0 -1 17 -4.7080513468245044e-05</internalNodes>
          <leafValues>
            9.3333333730697632e-01 -4.7619047760963440e-01</leafValues></_>
        <_>
          <internalNodes>
            0 -1 19 2.8169702272862196e-04</internalNodes>
          <leafValues>
            -6.1373400688171387e-01 7.3859757184982300e-01</leafValues></_></weakClassifiers></_>
    <!-- stage 9 -->
    <_>
      <maxWeakCount>2</maxWeakCount>
      <stageThreshold>1.5404227375984192e-01</stageThreshold>
      <weakClassifiers>
        <_>
          <internalNodes>
            0 -1 10 -1.2065881164744496e-03</internalNodes>
          <leafValues>
            8.7500000000000000e-01 -5.0000000000000000e-01</leafValues></_>
        <_>
          <internalNodes>
            0 -1 6 -1.8501879139876110e-06</internalNodes>
          <leafValues>
            8.2722568511962891e-01 -7.2095769643783569e-01</leafValues></_></weakClassifiers></_></stages>
  <features>
    <_>
      <rects>
        <_>
          2 30 4 7 -1.</_>
        <_>
          4 30 2 7 2.</_></rects>
      <tilted>0</tilted></_>
    <_>
      <rects>
        <_>
          3 43 9 2 -1.</_>
        <_>
          6 43 3 2 3.</_></rects>
      <tilted>0</tilted></_>
    <_>
      <rects>
        <_>
          9 34 48 3 -1.</_>
        <_>
          9 35 48 1 3.</_></rects>
      <tilted>0</tilted></_>
    <_>
      <rects>
        <_>
          14 6 4 1 -1.</_>
        <_>
          16 6 2 1 2.</_></rects>
      <tilted>0</tilted></_>
    <_>
      <rects>
        <_>
          16 20 45 6 -1.</_>
        <_>
          16 23 45 3 2.</_></rects>
      <tilted>0</tilted></_>
    <_>
      <rects>
        <_>
          29 33 1 2 -1.</_>
        <_>
          29 34 1 1 2.</_></rects>
      <tilted>0</tilted></_>
    <_>
      <rects>
        <_>
          33 2 1 2 -1.</_>
        <_>
          33 3 1 1 2.</_></rects>
      <tilted>0</tilted></_>
    <_>
      <rects>
        <_>
          34 13 12 4 -1.</_>
        <_>
          40 13 6 4 2.</_></rects>
      <tilted>0</tilted></_>
    <_>
      <rects>
        <_>
          35 38 6 2 -1.</_>
        <_>
          35 38 3 1 2.</_>
        <_>
          38 39 3 1 2.</_></rects>
      <tilted>0</tilted></_>
    <_>
      <rects>
        <_>
          44 37 4 2 -1.</_>
        <_>
          44 37 2 1 2.</_>
        <_>
          46 38 2 1 2.</_></rects>
      <tilted>0</tilted></_>
    <_>
      <rects>
        <_>
          48 14 6 21 -1.</_>
        <_>
          48 21 6 7 3.</_></rects>
      <tilted>0</tilted></_>
    <_>
      <rects>
        <_>
          49 21 5 6 -1.</_>
        <_>
          49 24 5 3 2.</_></rects>
      <tilted>0</tilted></_>
    <_>
      <rects>
        <_>
          50 48 33 2 -1.</_>
        <_>
          50 49 33 1 2.</_></rects>
      <tilted>0</tilted></_>
    <_>
      <rects>
        <_>
          51 3 21 4 -1.</_>
        <_>
          58 3 7 4 3.</_></rects>
      <tilted>0</tilted></_>
    <_>
      <rects>
        <_>
          54 22 6 26 -1.</_>
        <_>
          54 22 3 13 2.</_>
        <_>
          57 35 3 13 2.</_></rects>
      <tilted>0</tilted></_>
    <_>
      <rects>
        <_>
          54 29 6 1 -1.</_>
        <_>
          57 29 3 1 2.</_></rects>
      <tilted>0</tilted></_>
    <_>
      <rects>
        <_>
          54 47 15 1 -1.</_>
        <_>
          59 47 5 1 3.</_></rects>
      <tilted>0</tilted></_>
    <_>
      <rects>
        <_>
          57 20 8 1 -1.</_>
        <_>
          61 20 4 1 2.</_></rects>
      <tilted>0</tilted></_>
    <_>
      <rects>
        <_>
          59 10 18 2 -1.</_>
        <_>
          59 10 9 1 2.</_>
        <_>
          68 11 9 1 2.</_></rects>
      <tilted>0</tilted></_>
    <_>
      <rects>
        <_>
          61 0 10 18 -1.</_>
        <_>
          61 0 5 9 2.</_>
        <_>
          66 9 5 9 2.</_></rects>
      <tilted>0</tilted></_>
    <_>
      <rects>
        <_>
          62 39 6 4 -1.</_>
        <_>
          64 39 2 4 3.</_></rects>
      <tilted>0</tilted></_>
    <_>
      <rects>
        <_>
          76 42 2 6 -1.</_>
        <_>
          76 44 2 2 3.</_></rects>
      <tilted>0</tilted></_>
    <_>
      <rects>
        <_>
          78 19 12 26 -1.</_>
        <_>
          82 19 4 26 3.</_></rects>
      <tilted>0</tilted></_>
    <_>
      <rects>
        <_>
          89 9 4 2 -1.</_>
        <_>
          89 9 2 1 2.</_>
        <_>
          91 10 2 1 2.</_></rects>
      <tilted>0</tilted></_></features></cascade>
</opencv_storage>
