<?xml version="1.0"?>
<opencv_storage>
<stage9>
  <maxWeakCount>5</maxWeakCount>
  <stageThreshold>-1.7967036962509155e+00</stageThreshold>
  <weakClassifiers>
    <_>
      <internalNodes>
        0 -1 3715 2.9736316204071045e-01</internalNodes>
      <leafValues>
        -9.3050193786621094e-01 1.</leafValues></_>
    <_>
      <internalNodes>
        0 -1 147244 1.2402433902025223e-02</internalNodes>
      <leafValues>
        -6.9092142581939697e-01 5.4847502708435059e-01</leafValues></_>
    <_>
      <internalNodes>
        0 -1 97936 1.3597181532531977e-03</internalNodes>
      <leafValues>
        6.9014534354209900e-02 -9.5891731977462769e-01</leafValues></_>
    <_>
      <internalNodes>
        0 -1 69280 -4.7599719837307930e-03</internalNodes>
      <leafValues>
        5.4682785272598267e-01 -3.3390232920646667e-01</leafValues></_>
    <_>
      <internalNodes>
        0 -1 114499 -1.9235822837799788e-03</internalNodes>
      <leafValues>
        -7.9112267494201660e-01 2.1422016620635986e-01</leafValues></_></weakClassifiers></stage9>
</opencv_storage>
