<?xml version="1.0"?>
<opencv_storage>
<stage12>
  <maxWeakCount>5</maxWeakCount>
  <stageThreshold>-1.8564429283142090e+00</stageThreshold>
  <weakClassifiers>
    <_>
      <internalNodes>
        0 -1 157056 1.8545038998126984e-02</internalNodes>
      <leafValues>
        -9.3610841035842896e-01 1.</leafValues></_>
    <_>
      <internalNodes>
        0 -1 26402 2.1697437763214111e-01</internalNodes>
      <leafValues>
        -7.2717505693435669e-01 6.5969157218933105e-01</leafValues></_>
    <_>
      <internalNodes>
        0 -1 132963 -3.4785713069140911e-03</internalNodes>
      <leafValues>
        4.7133204340934753e-01 -4.5503443479537964e-01</leafValues></_>
    <_>
      <internalNodes>
        0 -1 23775 -5.6229703128337860e-02</internalNodes>
      <leafValues>
        6.8496602773666382e-01 -3.4539529681205750e-01</leafValues></_>
    <_>
      <internalNodes>
        0 -1 80848 -3.3793479669839144e-03</internalNodes>
      <leafValues>
        6.9444882869720459e-01 -3.1909626722335815e-01</leafValues></_></weakClassifiers></stage12>
</opencv_storage>
