<?xml version="1.0"?>
<opencv_storage>
<stage10>
  <maxWeakCount>5</maxWeakCount>
  <stageThreshold>-1.6031899452209473e+00</stageThreshold>
  <weakClassifiers>
    <_>
      <internalNodes>
        0 -1 66136 -1.3087597675621510e-02</internalNodes>
      <leafValues>
        1. -9.3050193786621094e-01</leafValues></_>
    <_>
      <internalNodes>
        0 -1 111448 -5.0085373222827911e-03</internalNodes>
      <leafValues>
        6.3117384910583496e-02 -7.4280077219009399e-01</leafValues></_>
    <_>
      <internalNodes>
        0 -1 118938 -3.9860440301708877e-04</internalNodes>
      <leafValues>
        1.5485228598117828e-01 -6.3739418983459473e-01</leafValues></_>
    <_>
      <internalNodes>
        0 -1 10579 7.4451550608500838e-04</internalNodes>
      <leafValues>
        -4.9650144577026367e-01 3.3065026998519897e-01</leafValues></_>
    <_>
      <internalNodes>
        0 -1 120136 1.2433247175067663e-03</internalNodes>
      <leafValues>
        -3.9415621757507324e-01 4.3151119351387024e-01</leafValues></_></weakClassifiers></stage10>
</opencv_storage>
