<?xml version="1.0"?>
<opencv_storage>
<stage2>
  <maxWeakCount>5</maxWeakCount>
  <stageThreshold>-8.4726922214031219e-02</stageThreshold>
  <weakClassifiers>
    <_>
      <internalNodes>
        0 -1 63895757 6.6747350501827896e-05</internalNodes>
      <leafValues>
        5.6170213222503662e-01 -4.0579709410667419e-01</leafValues></_>
    <_>
      <internalNodes>
        0 -1 108002409 -5.6054850574582815e-06</internalNodes>
      <leafValues>
        -6.3901901245117188e-01 3.5317218303680420e-01</leafValues></_>
    <_>
      <internalNodes>
        0 -1 84317793 -1.6070076526375487e-05</internalNodes>
      <leafValues>
        -6.2565773725509644e-01 3.6082917451858521e-01</leafValues></_>
    <_>
      <internalNodes>
        0 -1 14614111 -1.0991630915668793e-05</internalNodes>
      <leafValues>
        -5.8331620693206787e-01 2.9228314757347107e-01</leafValues></_>
    <_>
      <internalNodes>
        0 -1 95710388 7.3232968134107068e-06</internalNodes>
      <leafValues>
        3.0127257108688354e-01 -6.1172920465469360e-01</leafValues></_></weakClassifiers></stage2>
</opencv_storage>
