<?xml version="1.0"?>
<opencv_storage>
<stage3>
  <maxWeakCount>8</maxWeakCount>
  <stageThreshold>-5.0325876474380493e-01</stageThreshold>
  <weakClassifiers>
    <_>
      <internalNodes>
        0 -1 108094497 6.0657048379653133e-06</internalNodes>
      <leafValues>
        6.0706400871276855e-01 -4.3225806951522827e-01</leafValues></_>
    <_>
      <internalNodes>
        0 -1 169874 3.1151725124800578e-05</internalNodes>
      <leafValues>
        3.4707719087600708e-01 -6.6998434066772461e-01</leafValues></_>
    <_>
      <internalNodes>
        0 -1 108234709 5.7826232477964368e-06</internalNodes>
      <leafValues>
        3.4209156036376953e-01 -6.0299384593963623e-01</leafValues></_>
    <_>
      <internalNodes>
        0 -1 4258529 3.2985710731736617e-06</internalNodes>
      <leafValues>
        3.2615867257118225e-01 -6.2448126077651978e-01</leafValues></_>
    <_>
      <internalNodes>
        0 -1 4264581 -3.7806898944836576e-06</internalNodes>
      <leafValues>
        -5.8576083183288574e-01 3.0403137207031250e-01</leafValues></_>
    <_>
      <internalNodes>
        0 -1 62529781 3.1146178116614465e-06</internalNodes>
      <leafValues>
        3.9048138260841370e-01 -5.2657753229141235e-01</leafValues></_>
    <_>
      <internalNodes>
        0 -1 74881958 8.4799923934042454e-04</internalNodes>
      <leafValues>
        -3.3544227480888367e-01 6.7280346155166626e-01</leafValues></_>
    <_>
      <internalNodes>
        0 -1 10550332 -6.9473098847083747e-06</internalNodes>
      <leafValues>
        -4.9475863575935364e-01 3.9748495817184448e-01</leafValues></_></weakClassifiers></stage3>
</opencv_storage>
